0.297946 0.49522 0.461449 0.500744 0.350692 0.746201 -0.264068 0.186146 -0.130255 0.339746 -0.968563 0.239293 0.569244 -0.244985 0.448159 -0.827296 -0.782817 0.829368 0.284397 0.689031 -0.549038 -0.510599 -0.548558 -0.802848 0.271347 -0.013729 -0.631028 -0.966062 -0.988652 -0.569685 -0.7236 -0.651733 0.238672 -0.00969356 0.544526 -0.611281 -0.83425 0.0331056 -0.67616 -0.617626 -0.297943 -0.614748 -0.477549 0.00723229 0.574567 0.0210042 -0.632571 0.428416 0.147671 -0.795615 0.327725 -0.765119 -0.701816 0.436696 -0.14985 0.693961 -0.683248 0.586373 -0.322116 -0.0198819 0.294691 0.453917 -0.726202 0.272783 0.328444 0.290763 -1.24203 -0.699581 -0.830657 0.101784 0.947268 -0.766336 0.0957626 -0.877294 -0.768919 -0.460427 -0.58857 -1.03323 -0.37994 0.97696 -0.768259 -0.47407 -0.272601 0.278305 -0.474567 0.474306 -0.617414 -0.600753 0.00965433 0.464074 0.882641 0.301932 -0.481688 -0.628502 0.680087 0.171751 0.170423 0.158959 -0.336051 0.0678744 0.735571 0.245551 0.011589 -0.261683 -0.264645 0.86291 0.389007 0.913055 -1.145 0.109766 0.390174 1.01501 0.0399288 -0.786951 0.463176 0.258373 -0.483724 0.507938 -0.288634 0.330312 0.477188 -0.180399 -0.091019 -0.202652 -0.611743 0.583566 -0.386571 -0.288245 0.163767 -0.913833 -0.864927 0.380495 -0.34269 0.539092 0.519451 -0.575076 -0.790797 0.629617 0.203652 0.735673 0.808959 0.402296 0.0828324 0.298366 -0.162476 -0.346657 0.147621 0.0816479 0.667664 -0.16942 -0.332081 0.948991 0.425861 0.487501 -0.0904018 0.84724 0.56605 -0.308124 -0.24404 -0.651473 0.233852 -0.966016 0.221166 -0.421747 -0.562234 -0.538525 -0.281734 -0.384086 0.763549 -1.04199 -1.19918 0.0462197 -0.221048 0.334445 0.277982 0.69793 -0.469259 -0.657908 -1.11579 -0.687087 0.607549 0.809535 0.0717073 -0.788102 0.425258 1.0089 0.553151 0.192869 0.579562 0.670327 -0.545102 -0.251136 0.423618 0.0210577 -0.539301 0.128244 0.437047 0.550365 -0.561303 0.764458 0.967954 0.762015 0.185461 -0.646311 -0.529644 -0.497257 -0.7693 0.447565 -1.05942 -0.335571 0.99114 -1.07408 0.57246 -1.07572 1.10082 -0.373192 0.191646 0.508122 -0.574642 0.759204 1.03401 0.962831 -0.25713 -0.0582905 -0.259865 0.469206 -0.689121 -0.689733 0.327342 -0.262386 -0.119446 -0.865032 -0.898972 0.495894 -0.0563781 -0.451555 -0.446326 -0.0830609 0.241451 1.04556 0.034675 -0.743089 -0.297778 0.106312 0.0900944 -0.91164 0.12313 -0.821033 -0.827752 -0.359196 0.835963 0.631144 -0.450593 0.169618 0.131721 0.0372769 -0.4386 0.762058 -0.893763 0.807842 0.841148 0.147196 -0.412712 -0.611823 0.78634 -0.595451 0.750251 0.621356 0.884502 0.360292 -0.868101 -0.16583 -0.632643 -0.49218 0.88609 0.398321 -0.320045 0.317476 -0.182951 -0.238124 -0.0841749 -0.529981 -0.113909 -0.0937244 -0.58232 -0.179514 -0.643188 -0.322962 -0.166937 0.773064 0.0721097 -0.0453624 -0.507703 0.589304 0.180977 0.360162 -0.171968 -0.7193 0.0374661 0.470842 0.248923 0.00826619 -0.56429 0.604177 -0.17486 0.614568 0.156878 -0.915918 -0.222089 -0.295414 -0.91937 0.460575 -0.583195 -0.0803388 -0.0511393 0.985477 1.00835 -1.00588 -0.377391 0.712232 1.13762 0.509858 -0.748236 0.642835 -0.546391 -0.00809974 0.167172 -0.0554673 0.618916 -0.239459 0.79282 -0.968173 -0.821603 -0.101053 -0.745997 -0.488148 -1.02312 -0.0560948 -0.847212 1.11841 -0.993373 -1.10667 -0.97123 -0.292089 -0.92483 0.421998 -0.0710579 -0.090677 -0.602592 -0.0403489 -0.0797928 -0.764364 -0.20597 0.7219 -0.864492 -0.453663 -0.314618 -0.147385 0.368709 0.863433 0.235941 0.541738 -0.727794 -0.175306 -0.0399991 -0.0906319 -0.50493 -0.851263 -0.297563 0.854329 0.715164 -0.00241811 0.57284 -0.540528 -0.72441 -0.0622915 0.60357 -0.918985 -0.159058 0.339724 -0.0527753 -0.808151 0.332818 0.645025 -0.647388 -0.96801 -0.599453 0.0884839 -0.00879702 0.323751 -0.870922 0.0648053 0.995243 0.959566 -0.838005 0.780774 -0.472309 -0.177547 -0.616613 -0.523059 -0.273405 -0.623661 -0.893145 -0.87422 0.782446 0.258158 0.358689 -0.827344 0.524258 -0.711043 0.923384 -0.202246 0.899476 0.516013 -1.10119 0.111946 0.331237 0.821262 0.887922 -0.516693 0.9627 -0.135972 0.766488 0.577407 0.423311 0.19287 -0.833501 0.875962 -0.158129 -0.879959 -0.795957 0.574497 0.961911 -0.612533 -0.0846304 -0.697034 -0.644425 0.0658645 -0.753009 0.963058 0.863977 -0.938237 0.2654 -0.290675 -0.797494 0.574354 0.690724 0.804513 -0.67469 -0.77925 -0.442016 -0.249431 0.797688 0.0408438 0.805224 0.379959 -0.346944 -0.822064 -0.830281 0.584007 0.891379 -0.046664 0.294186 0.490621 -0.734348 0.259707 0.634155 -0.0787187 0.236469 -0.552329 -0.224419 0.856203 0.798367 0.350997 -0.515663 -0.720458 0.382008 -0.91149 0.259878 -0.880049 -0.649673 -0.220422 0.469581 0.781317 0.48735 -0.933237 0.753234 0.895489 0.195823 -0.690233 0.379999 0.944848 -0.256521 -0.677537 -0.317558 0.286756 -0.343816 0.888222 0.584559 -0.67747 0.634782 0.884718 0.478976 0.228789 0.196226 -0.549538 -0.613618 0.254442 0.243937 0.612184 0.781237 -0.776415 0.4618 -0.176091 0.525835 -0.688579 0.86076 0.503903 -0.856824 0.229706 0.918582 -0.785776 -0.685855 -0.507709 0.121896 -0.0520125 -0.375681 -1.1288 0.0424538 0.635566 0.660257 0.409311 0.206783 -0.364682 -0.321806 -0.996985 -0.0284998 -0.987946 0.329738 0.396942 -0.0412797 -0.839408 0.630301 -0.898488 -0.298608 0.553131 1.07393 -0.765347 -0.0906011 0.222664 1.04609 -0.78936 0.320398 -0.997136 -0.403518 0.659542 -0.287695 0.477557 -0.810319 -0.875868 0.226593 -0.241421 -0.634819 -0.114492 0.155873 -0.53876 -0.672436 -0.156321 -0.579164 -0.825338 0.778917 0.618416 0.924274 -0.0629807 -0.314836 0.840114 -0.743179 -0.262515 -1.04781 -0.107355 0.870509 0.140381 0.945188 -0.0259906 0.0531961 0.440035 0.126367 0.606755 -0.692609 0.908139 -0.271273 -0.177478 0.175687 -0.437411 0.81643 -0.293928 0.349898 0.197588 -0.143808 -0.366868 -0.591129 -0.5289 -0.399432 0.733122 -0.550787 0.997428 -0.175318 0.657766 -0.684365 -0.0844994 0.768088 0.989851 -0.897382 0.093304 -0.808077 -0.694581 0.365896 0.992615 0.726355 0.536814 -0.578511 0.141536 0.21441 0.617665 0.122343 0.582154 0.765113 -0.264788 -0.430297 0.678118 -0.140096 -0.420026 -0.249167 0.0902114 0.602401 -0.143567 -0.332031 0.457593 0.305574 -0.280087 -0.728112 -1.12499 0.551807 0.746255 0.503572 -0.849427 -0.277632 0.079729 -0.517981 -0.348373 0.114209 0.0933068 -0.366192 -0.124086 0.05851 -0.21565 0.987784 0.947717 -0.593042 0.127457 -0.232643 -0.526069 -0.225875 0.145995 0.636354 -0.164255 -1.01933 0.279887 0.480578 -0.0231464 0.670176 -0.662025 -0.209512 0.405602 -0.796412 0.96096 0.153032 -0.647311 0.123394 0.0959853 0.794268 1.0207 0.673662 0.385115 0.113985 -0.527628 -0.352669 -0.513597 -0.0616794 -0.558498 -0.526563 -0.34825 0.651717 0.80452 -0.961789 0.703987 0.232218 0.137108 -0.0104161 0.987237 -0.599187 -0.158582 0.0142224 -0.23858 -0.258625 0.0147629 -0.733995 0.14361 0.721642 0.63771 0.366548 0.677831 0.197273 0.62887 -0.00966879 -0.399445 -0.395153 -0.749785 0.495004 -0.776711 -0.144905 0.339117 -0.483538 -0.378391 0.0611297 0.686931 0.464459 -0.217089 0.292461 0.780022 0.606902 0.776184 -0.215085 0.911689 0.528866 0.4426 -0.686988 0.563812 0.581965 0.0301532 -0.857876 -0.784435 -0.569823 0.552578 0.989515 -1.12455 -0.489162 -0.0271418 -0.925018 0.271683 0.202845 0.521026 -0.0985882 0.499631 0.615045 0.519885 0.213085 -0.603773 0.306849 0.697526 -0.350294 -0.838344 0.529294 -0.295351 -0.447861 0.247667 -0.903657 0.689707 -0.530198 0.885725 -0.561661 0.707041 -0.475823 -0.950591 0.784498 -0.0970677 -0.15992 -0.270198 -0.799961 0.404022 -0.183044 -0.34646 -0.890896 0.873884 -1.01033 -0.243824 -0.708303 0.291143 0.332112 -0.860345 0.815274 -0.0931602 0.738412 0.324044 -0.260005 0.0262512 -0.754023 0.146369 0.536371 0.064361 -0.367796 0.528869 -0.990239 -0.404103 0.491989 -0.519747 -0.930048 0.483361 -0.858687 0.460553 0.08119 0.661572 0.700815 0.349442 -0.178928 0.228452 0.158627 0.586205 -0.247297 -0.041761 1.02335 0.391985 0.0477447 0.575613 -0.581415 0.00775027 -0.59302 -0.487043 0.265493 -0.0112991 -0.65218 0.609858 0.702976 -0.902184 0.879716 0.234449 0.268633 -0.826243 -0.465952 0.188126 0.590817 -0.826583 0.72044 -0.568196 -0.824356 0.0521072 -0.348109 -0.44685 0.999122 -0.80345 0.207733 -0.889611 0.323177 0.559188 0.646423 -0.26966 0.703347 -0.442371 0.481859 0.549305 -0.599846 0.562597 0.0777155 -0.954784 -0.963477 0.184563 -0.629412 -0.805113 0.663269 0.71638 0.689184 0.0920207 1.01675 0.39614 -0.47289 -0.610306 0.790798 0.263393 -0.076132 0.257217 -0.0884348 -0.219924 -0.458733 -0.0478768 0.78112 0.862059 0.0908076 -0.523646 -0.0566579 -0.640307 -0.0495003 0.417624 0.78477 -0.589105 1.10105 -0.0215396 -0.240057 0.447852 0.563094 0.226708 -0.0272055 -0.449701 0.881015 -0.429706 -0.25511 0.218272 0.575678 0.529889 0.699028 0.791951 0.242092 -0.297802 -1.04817 0.21368 -0.181037 0.0268289 0.108961 -1.0732 0.919923 0.728595 0.903739 -0.0448559 -0.227237 -0.476106 0.965781 0.698836 0.496117 -0.263592 -0.614 0.224495 -0.0970106 -0.174892 -0.069555 0.26209 -0.967143 0.909884 0.89543 -0.40439 -0.705962 0.0874117 0.51598 -0.859413 -0.279119 -0.592489 -0.99892 0.784338 0.291966 -0.472093 0.17272 0.566766 -0.318481 -0.796119 0.773294 -0.856128 0.337522 0.0234606 0.686254 0.149615 -0.816263 -0.860437 0.715252 -0.0616485 -0.432956 0.357211 -1.05471 1.04137 0.573143 0.69243 0.0375213 0.0889635 -0.837076 0.0916565 -0.518694 -0.767347 -0.858148 -0.881313 0.127287 0.334181 -0.453637 -0.642805 1.00679 0.0280281 0.993274 -0.912213 -0.0354884 0.138505 -0.305033 -0.162244 -0.801315 -0.312022 0.545819 -0.144638 -0.300481 -0.847408 -0.120038 -0.408999 0.662985 -0.969625 0.520354 0.267738 0.675208 0.0261463 0.671612 -0.878649 0.0787822 -0.0198527 0.0649012 -0.445762 -0.395724 0.807694 -0.361538 -0.0790969 -0.648469 -0.83701 0.841581 -0.480259 0.976213 -0.988752 -0.729549 -0.70074 0.315402 0.157642 1.26623 -0.47996 0.752025 -0.644866 0.657815 0.875549 0.0984726 0.0993142 0.33768 -0.939822 -0.985104 0.420586 0.56003 0.824632 -0.378763 0.071833 0.354629 -0.251433 -0.0580054 0.146574 0.186576 -0.933154 -0.300992 -0.0273429 0.042499 1.01698 0.307704 0.553088 0.754249 0.440637 0.595213 -0.115818 -0.158589 -0.0502136 -1.00061 0.799674 -0.489059 -0.636692 -0.874424 0.651024 0.447121 -1.07382 -0.17174 -0.635873 0.911387 -0.545497 0.0141442 0.662984 -0.473304 -0.782974 0.157822 -0.443402 -0.62213 0.214005 0.645779 -0.470427 -0.284286 0.603687 -0.974318 -0.703725 -0.956657 0.157764 0.0654068 0.155252 -0.786715 0.20788 0.274474 -0.0728095 -1.07603 -0.898081 0.907718 0.958316 0.208191 0.200345 -0.0304015 -0.99667 -0.840519 0.372434 -0.700274 -1.10604 0.412804 -0.837976 1.27618 0.522535 0.906575 0.809437 -0.553497 0.524778 0.194865 -0.914135 0.512784 -0.371139 -0.864324 0.522085 0.197672 -0.49165 -0.182491 0.181374 -0.942079 0.493042 0.336501 0.830414 1.00871 -0.122724 -0.0937277 -0.591173 -0.155688 0.347164 -0.088752 0.110968 0.481564 -0.479351 -0.104812 0.248614 0.531826 0.0156489 0.480913 0.495025 0.359717 0.155762 0.536824 -0.480189 -0.779302 -1.19847 -0.529373 0.0933042 -0.0157448 0.449178 -0.189577 0.0601881 -0.495144 -0.23953 0.324668 0.859883 0.700719 -0.276775 -0.19475 0.832534 0.349899 0.203046 -0.171575 -0.691341 0.893504 -0.444008 -0.707381 1.05652 -0.483626 0.679025 0.6611 0.352038 -0.699368 0.315453 -0.697321 0.525734 -0.555892 0.154529 -0.567033 -1.07993 0.335328 -0.142299 0.293539 -1.08015 0.390697 0.273011 -0.791994 0.188849 1.0296 0.598328 0.460757 -0.252821 -0.795722 0.178643 -0.823739 0.913072 -0.359809 0.51003 -0.105258 -0.71207 0.944107 -0.390103 -0.409292 -0.199211 0.464389 -0.639836 -0.672794 -0.481617 0.147005 0.0256624 0.16772 -0.236798 0.714871 0.411684 0.434956 0.47577 -0.727146 -0.396914 -0.167552 -0.761262 -0.203304 -0.88267 0.100192 -0.88706 0.176225 0.994662 0.171384 -0.330504 1.1469 0.635435 0.245438 0.37156 0.275628 -0.859169 0.33468 0.453752 -0.451608 -0.690869 -0.559831 0.125899 -0.0048869 0.31209 0.427093 0.229504 0.69521 0.0861526 0.216401 0.556889 -0.948241 -0.722953 0.986191 0.635859 -0.347235 -0.187359 -0.892278 0.879148 0.90144 0.0803524 0.0279843 -0.861125 -0.659089 -0.562755 0.360703 0.9381 -0.404662 0.485726 0.936131 -0.0864001 0.789542 0.111527 0.37311 -1.0121 0.224264 0.46744 0.397226 0.271108 0.454621 0.238709 -1.02336 -0.708559 0.580733 -1.0872 -0.336216 -0.0662205 0.623733 0.882723 -0.0134463 0.317396 -0.438167 0.448892 1.01674 0.563645 -0.117717 -0.819992 0.518367 0.857214 1.02491 -0.322803 -0.0634826 0.0233153 0.762269 0.510334 0.909161 -0.246689 0.314477 0.863005 -1.07531 0.251613 -0.19532 -1.0888 0.927502 -0.122798 -0.886484 -0.126003 -0.652662 0.115329 -0.423268 0.583299 0.772274 -0.336702 -0.159951 -0.0205714 -0.163931 0.818452 0.676395 -0.180257 -0.900484 -1.17425 0.754059 0.612415 0.222251 0.22799 0.689319 1.00756 -0.251118 -0.271678 0.179339 0.190761 0.309685 0.963743 0.37591 0.559095 0.427767 0.0977184 -0.677152 -0.656222 -0.604258 -0.053969 0.699778 1.02005 0.924606 -0.415001 -0.17789 0.448945 -0.0782663 1.07385 -0.961863 -0.745402 -0.269417 -0.00646037 -0.360953 1.03044 -0.535427 -0.103086 -1.05112 0.221855 -0.372634 -0.426583 1.00562 -0.646963 0.566872 0.672648 0.921212 0.656285 -0.155325 -0.934692 -0.0336983 -0.689856 -0.423229 -0.890553 -0.436611 -0.686662 0.156384 -0.148482 -0.921421 0.222632 -0.929196 0.432834 -0.0856884 -0.405201 1.03719 -0.921615 0.0682354 -0.0320961 0.245024 0.881123 0.473821 -0.440446 -0.152045 0.509112 -0.0700504 0.879786 -0.0251786 0.707901 0.135322 -0.457591 -0.7085 -0.775193 -0.167034 0.0589574 0.505656 0.503474 0.281339 0.271021 0.16308 -0.69255 -0.755163 -0.820368 -0.234617 0.817637 0.972555 -0.739332 0.131631 0.258313 -0.353098 0.784265 -0.300015 0.80691 -0.370236 0.592647 0.793297 0.887931 0.834786 -0.964763 -0.465491 0.54219 0.510464 0.116628 -0.904831 0.641571 0.839417 -0.815245 -0.179747 -0.431534 0.189728 0.721958 0.949893 0.888106 -0.807086 -0.384053 0.721239 -0.104447 -0.223229 0.0711049 0.19339 0.281705 -0.564555 0.819917 0.590694 0.830794 -0.117081 -0.662501 0.139489 -0.695438 0.249952 0.068775 0.502448 -0.705995 0.384745 0.841925 -0.354687 -0.441591 0.194517 -0.566069 -0.610543 0.362904 0.0667163 -0.126189 -0.75474 -0.344138 0.188518 -0.0805809 -0.50801 -0.641227 1.098 -0.203762 0.674285 0.820819 -0.578287 0.536488 -0.365262 0.0952282 0.49423 -0.630173 0.72206 1.01784 -0.649177 0.0493176 -0.0324412 -0.666404 -0.469561 -0.381657 -0.06831 -0.998463 -0.095098 0.872734 -0.313307 0.66923 0.148579 -0.559692 -0.790522 -0.82699 0.120313 0.166721 0.404956 -0.912031 -0.10089 0.843923 0.420116 -0.393793 0.297759 0.408001 -0.981284 0.237441 -0.401959 -0.157699 0.875749 -0.359563 1.04611 -0.108206 0.899073 0.735507 -0.536163 0.763586 0.139064 0.0289787 -0.136877 0.269634 -0.127592 0.0632103 0.949581 -0.826883 0.99869 -0.718377 -0.0101028 0.513685 0.733636 0.40039 0.0288405 -1.09331 -0.169765 -0.733742 -0.628195 0.121297 0.549486 0.115477 -0.163186 -0.364619 -0.271257 0.0151463 0.0714629 0.896664 -0.768195 0.512205 -0.471936 0.237186 0.753429 0.793779 -0.506524 0.266776 -0.953964 -0.961102 0.816115 0.356126 -0.522102 -0.854555 -0.00430556 -0.033264 0.227205 -0.664537 0.298562 0.641852 -0.435944 -0.0135466 -0.411818 0.813872 0.294411 0.188004 0.633224 -0.130056 -0.111044 -0.291929 -0.461961 0.539516 -0.219651 -0.0619875 -0.429683 -0.211289 -0.803302 -0.0519243 -0.697202 0.830812 -0.00785759 -0.740282 0.799164 -0.602 0.793296 -0.598702 -0.183318 -0.471986 0.453973 0.217016 -0.338889 0.626813 0.0745123 0.181103 -0.713646 0.91976 -0.5683 -0.324383 -0.897694 -0.658691 1.01081 0.152709 0.0607219 -0.0289343 -0.450996 0.080245 0.3399 0.0223773 0.59338 0.34181 -0.279306 0.448397 0.563944 -0.67466 -0.799702 -0.783174 -0.763403 0.196936 -0.25104 -0.618796 -1.20956 -0.48344 -0.965628 0.852726 0.410933 0.748871 -0.705363 -0.563425 0.268966 0.696751 -0.70315 0.303107 0.672503 0.0691082 0.0157402 -0.10109 -1.18758 0.742885 0.103893 -0.800304 -0.545449 -0.279137 1.11668 -0.0556485 -0.777058 0.89161 0.394128 0.0605545 -0.21257 0.0978594 -0.122197 1.0266 0.614546 -0.649019 0.487638 -0.666775 -0.172687 -0.555682 -0.364776 0.645144 -0.504568 -0.156831 0.226958 0.563527 0.254496 0.00579477 0.358599 0.207398